digraph Tree {
node [shape=box, style="filled, rounded", color="black", fontname=helvetica] ;
edge [fontname=helvetica] ;
0 [label=<GPA &le; 3.65<br/>gini = 0.667<br/>samples = 24000<br/>value = [8016, 8012, 7972]<br/>class = 60->, fillcolor="#e5813900"] ;
1 [label=<Avg video game time &le; 4.5<br/>gini = 0.624<br/>samples = 19207<br/>value = [8016, 8012, 3179]<br/>class = 60->, fillcolor="#e5813900"] ;
0 -> 1 [labeldistance=2.5, labelangle=45, headlabel="True"] ;
2 [label=<Avg study time &le; 4.5<br/>gini = 0.613<br/>samples = 12038<br/>value = [3006, 6280, 2752]<br/>class = 60~80>, fillcolor="#39e5815c"] ;
1 -> 2 ;
3 [label=<TOEIC grade &le; 752.5<br/>gini = 0.66<br/>samples = 6709<br/>value = [2200, 2632, 1877]<br/>class = 60~80>, fillcolor="#39e58118"] ;
2 -> 3 ;
4 [label=<Family financial status &le; 1.5<br/>gini = 0.664<br/>samples = 5676<br/>value = [1978, 2044, 1654]<br/>class = 60~80>, fillcolor="#39e58105"] ;
3 -> 4 ;
5 [label=<IQ &le; 116.5<br/>gini = 0.657<br/>samples = 3803<br/>value = [1397, 1441, 965]<br/>class = 60~80>, fillcolor="#39e58105"] ;
4 -> 5 ;
6 [label=<gini = 0.643<br/>samples = 1252<br/>value = [447, 536, 269]<br/>class = 60~80>, fillcolor="#39e5811c"] ;
5 -> 6 ;
7 [label=<IQ &le; 137.5<br/>gini = 0.661<br/>samples = 2551<br/>value = [950, 905, 696]<br/>class = 60->, fillcolor="#e5813907"] ;
5 -> 7 ;
8 [label=<gini = 0.656<br/>samples = 1537<br/>value = [593, 558, 386]<br/>class = 60->, fillcolor="#e5813909"] ;
7 -> 8 ;
9 [label=<gini = 0.665<br/>samples = 1014<br/>value = [357, 347, 310]<br/>class = 60->, fillcolor="#e5813904"] ;
7 -> 9 ;
10 [label=<gini = 0.665<br/>samples = 1873<br/>value = [581, 603, 689]<br/>class = 80+>, fillcolor="#8139e511"] ;
4 -> 10 ;
11 [label=<gini = 0.583<br/>samples = 1033<br/>value = [222, 588, 223]<br/>class = 60~80>, fillcolor="#39e58173"] ;
3 -> 11 ;
12 [label=<In a relationship &le; 0.5<br/>gini = 0.482<br/>samples = 5329<br/>value = [806, 3648, 875]<br/>class = 60~80>, fillcolor="#39e5819f"] ;
2 -> 12 ;
13 [label=<Laptop brand &le; 2.5<br/>gini = 0.104<br/>samples = 2854<br/>value = [0, 2697, 157]<br/>class = 60~80>, fillcolor="#39e581f0"] ;
12 -> 13 ;
14 [label=<gini = 0.047<br/>samples = 1469<br/>value = [0, 1434, 35]<br/>class = 60~80>, fillcolor="#39e581f9"] ;
13 -> 14 ;
15 [label=<gini = 0.161<br/>samples = 1385<br/>value = [0, 1263, 122]<br/>class = 60~80>, fillcolor="#39e581e6"] ;
13 -> 15 ;
16 [label=<IQ &le; 122.5<br/>gini = 0.662<br/>samples = 2475<br/>value = [806, 951, 718]<br/>class = 60~80>, fillcolor="#39e58116"] ;
12 -> 16 ;
17 [label=<gini = 0.65<br/>samples = 1099<br/>value = [341, 477, 281]<br/>class = 60~80>, fillcolor="#39e5812e"] ;
16 -> 17 ;
18 [label=<gini = 0.666<br/>samples = 1376<br/>value = [465, 474, 437]<br/>class = 60~80>, fillcolor="#39e58103"] ;
16 -> 18 ;
19 [label=<Avg study time &le; 4.5<br/>gini = 0.45<br/>samples = 7169<br/>value = [5010, 1732, 427]<br/>class = 60->, fillcolor="#e581399a"] ;
1 -> 19 ;
20 [label=<TOEIC grade &le; 672.5<br/>gini = 0.184<br/>samples = 4108<br/>value = [3699, 187, 222]<br/>class = 60->, fillcolor="#e58139e4"] ;
19 -> 20 ;
21 [label=<Laptop brand &le; 2.5<br/>gini = 0.098<br/>samples = 3103<br/>value = [2942, 0, 161]<br/>class = 60->, fillcolor="#e58139f1"] ;
20 -> 21 ;
22 [label=<gini = 0.037<br/>samples = 1594<br/>value = [1564, 0, 30]<br/>class = 60->, fillcolor="#e58139fa"] ;
21 -> 22 ;
23 [label=<gini = 0.159<br/>samples = 1509<br/>value = [1378, 0, 131]<br/>class = 60->, fillcolor="#e58139e7"] ;
21 -> 23 ;
24 [label=<gini = 0.394<br/>samples = 1005<br/>value = [757, 187, 61]<br/>class = 60->, fillcolor="#e58139b2"] ;
20 -> 24 ;
25 [label=<In a relationship &le; 0.5<br/>gini = 0.557<br/>samples = 3061<br/>value = [1311, 1545, 205]<br/>class = 60~80>, fillcolor="#39e58122"] ;
19 -> 25 ;
26 [label=<gini = 0.119<br/>samples = 1577<br/>value = [0, 1477, 100]<br/>class = 60~80>, fillcolor="#39e581ee"] ;
25 -> 26 ;
27 [label=<gini = 0.212<br/>samples = 1484<br/>value = [1311, 68, 105]<br/>class = 60->, fillcolor="#e58139df"] ;
25 -> 27 ;
28 [label=<gini = 0.0<br/>samples = 4793<br/>value = [0, 0, 4793]<br/>class = 80+>, fillcolor="#8139e5ff"] ;
0 -> 28 [labeldistance=2.5, labelangle=-45, headlabel="False"] ;
}